<?xml version="1.0"?>
<opencv_storage>
<cascade>
  <stageType>BOOST</stageType>
  <featureType>HAAR</featureType>
  <height>24</height>
  <width>36</width>
  <stageParams>
    <boostType>GAB</boostType>
    <minHitRate>9.9500000476837158e-01</minHitRate>
    <maxFalseAlarm>5.0000000000000000e-01</maxFalseAlarm>
    <weightTrimRate>9.4999998807907104e-01</weightTrimRate>
    <maxDepth>1</maxDepth>
    <maxWeakCount>100</maxWeakCount></stageParams>
  <featureParams>
    <maxCatCount>0</maxCatCount>
    <featSize>1</featSize>
    <mode>BASIC</mode></featureParams>
  <stageNum>15</stageNum>
  <stages>
    <!-- stage 0 -->
    <_>
      <maxWeakCount>5</maxWeakCount>
      <stageThreshold>-1.0533827543258667e+00</stageThreshold>
      <weakClassifiers>
        <_>
          <internalNodes>
            0 -1 94 1.2584543228149414e-01</internalNodes>
          <leafValues>
            -6.7289721965789795e-01 4.7651007771492004e-01</leafValues></_>
        <_>
          <internalNodes>
            0 -1 84 3.5263605415821075e-02</internalNodes>
          <leafValues>
            -3.6184623837471008e-01 7.5111669301986694e-01</leafValues></_>
        <_>
          <internalNodes>
            0 -1 50 -3.9967317134141922e-03</internalNodes>
          <leafValues>
            6.0716986656188965e-01 -3.7318167090415955e-01</leafValues></_>
        <_>
          <internalNodes>
            0 -1 55 -2.2913364693522453e-02</internalNodes>
          <leafValues>
            7.9049968719482422e-01 -2.0093776285648346e-01</leafValues></_>
        <_>
          <internalNodes>
            0 -1 109 2.0613055676221848e-03</internalNodes>
          <leafValues>
            -3.1094801425933838e-01 5.5548006296157837e-01</leafValues></_></weakClassifiers></_>
    <!-- stage 1 -->
    <_>
      <maxWeakCount>5</maxWeakCount>
      <stageThreshold>-8.7940138578414917e-01</stageThreshold>
      <weakClassifiers>
        <_>
          <internalNodes>
            0 -1 3 -6.9243863224983215e-02</internalNodes>
          <leafValues>
            5.9183675050735474e-01 -7.0697677135467529e-01</leafValues></_>
        <_>
          <internalNodes>
            0 -1 14 1.0439347533974797e-04</internalNodes>
          <leafValues>
            2.1133054792881012e-01 -8.5261946916580200e-01</leafValues></_>
        <_>
          <internalNodes>
            0 -1 15 3.0041685022297315e-05</internalNodes>
          <leafValues>
            2.9584127664566040e-01 -7.7610731124877930e-01</leafValues></_>
        <_>
          <internalNodes>
            0 -1 121 -4.5010625035502017e-04</internalNodes>
          <leafValues>
            -8.5851800441741943e-01 2.5973963737487793e-01</leafValues></_>
        <_>
          <internalNodes>
            0 -1 125 -1.3471124111674726e-04</internalNodes>
          <leafValues>
            -9.3933606147766113e-01 1.9352743029594421e-01</leafValues></_></weakClassifiers></_>
    <!-- stage 2 -->
    <_>
      <maxWeakCount>6</maxWeakCount>
      <stageThreshold>-1.1690022945404053e+00</stageThreshold>
      <weakClassifiers>
        <_>
          <internalNodes>
            0 -1 49 -5.0539769232273102e-02</internalNodes>
          <leafValues>
            2.9729729890823364e-01 -6.9387757778167725e-01</leafValues></_>
        <_>
          <internalNodes>
            0 -1 36 -1.3345616753213108e-04</internalNodes>
          <leafValues>
            -8.5287868976593018e-01 1.6666081547737122e-01</leafValues></_>
        <_>
          <internalNodes>
            0 -1 126 7.7524993685074151e-05</internalNodes>
          <leafValues>
            2.4225284159183502e-01 -7.7506935596466064e-01</leafValues></_>
        <_>
          <internalNodes>
            0 -1 29 1.7081480473279953e-02</internalNodes>
          <leafValues>
            -3.1748813390731812e-01 6.4707416296005249e-01</leafValues></_>
        <_>
          <internalNodes>
            0 -1 5 -2.9443981475196779e-05</internalNodes>
          <leafValues>
            -8.3102977275848389e-01 2.6364067196846008e-01</leafValues></_>
        <_>
          <internalNodes>
            0 -1 107 2.6981972041539848e-05</internalNodes>
          <leafValues>
            3.1945669651031494e-01 -5.6923454999923706e-01</leafValues></_></weakClassifiers></_>
    <!-- stage 3 -->
    <_>
      <maxWeakCount>9</maxWeakCount>
      <stageThreshold>-1.0402292013168335e+00</stageThreshold>
      <weakClassifiers>
        <_>
          <internalNodes>
            0 -1 18 -8.7173812091350555e-02</internalNodes>
          <leafValues>
            2.8915661573410034e-01 -6.4476883411407471e-01</leafValues></_>
        <_>
          <internalNodes>
            0 -1 123 -4.6062017645454034e-05</internalNodes>
          <leafValues>
            -7.6374179124832153e-01 1.9552005827426910e-01</leafValues></_>
        <_>
          <internalNodes>
            0 -1 7 -6.3799314375501126e-05</internalNodes>
          <leafValues>
            -8.1746274232864380e-01 1.6700713336467743e-01</leafValues></_>
        <_>
          <internalNodes>
            0 -1 25 1.5211405232548714e-02</internalNodes>
          <leafValues>
            1.9150035083293915e-01 -8.0797880887985229e-01</leafValues></_>
        <_>
          <internalNodes>
            0 -1 34 -1.3818010687828064e-02</internalNodes>
          <leafValues>
            -8.4002077579498291e-01 2.5702208280563354e-01</leafValues></_>
        <_>
          <internalNodes>
            0 -1 87 -4.7073671594262123e-03</internalNodes>
          <leafValues>
            5.8334237337112427e-01 -3.2729065418243408e-01</leafValues></_>
        <_>
          <internalNodes>
            0 -1 85 -4.9240738153457642e-02</internalNodes>
          <leafValues>
            -7.0588719844818115e-01 2.5357469916343689e-01</leafValues></_>
        <_>
          <internalNodes>
            0 -1 27 1.1633982649073005e-04</internalNodes>
          <leafValues>
            2.9718142747879028e-01 -5.6169718503952026e-01</leafValues></_>
        <_>
          <internalNodes>
            0 -1 66 5.1460764370858669e-03</internalNodes>
          <leafValues>
            -2.8430375456809998e-01 6.6061908006668091e-01</leafValues></_></weakClassifiers></_>
    <!-- stage 4 -->
    <_>
      <maxWeakCount>9</maxWeakCount>
      <stageThreshold>-9.6428489685058594e-01</stageThreshold>
      <weakClassifiers>
        <_>
          <internalNodes>
            0 -1 53 1.6426037997007370e-02</internalNodes>
          <leafValues>
            -5.9908884763717651e-01 3.3333334326744080e-01</leafValues></_>
        <_>
          <internalNodes>
            0 -1 40 -3.4541822969913483e-05</internalNodes>
          <leafValues>
            -7.2704291343688965e-01 2.0063997805118561e-01</leafValues></_>
        <_>
          <internalNodes>
            0 -1 95 1.6575757414102554e-02</internalNodes>
          <leafValues>
            -2.4262823164463043e-01 7.6678735017776489e-01</leafValues></_>
        <_>
          <internalNodes>
            0 -1 129 1.7036763892974705e-05</internalNodes>
          <leafValues>
            2.9280626773834229e-01 -5.9352815151214600e-01</leafValues></_>
        <_>
          <internalNodes>
            0 -1 69 -6.6263591870665550e-03</internalNodes>
          <leafValues>
            7.4493801593780518e-01 -2.1537543833255768e-01</leafValues></_>
        <_>
          <internalNodes>
            0 -1 119 2.6864443498197943e-05</internalNodes>
          <leafValues>
            3.0512356758117676e-01 -6.1935096979141235e-01</leafValues></_>
        <_>
          <internalNodes>
            0 -1 99 -9.8047967185266316e-05</internalNodes>
          <leafValues>
            -6.7185145616531372e-01 2.7498343586921692e-01</leafValues></_>
        <_>
          <internalNodes>
            0 -1 59 6.3505768775939941e-03</internalNodes>
          <leafValues>
            -3.2235360145568848e-01 6.2208861112594604e-01</leafValues></_>
        <_>
          <internalNodes>
            0 -1 124 -6.0958776157349348e-04</internalNodes>
          <leafValues>
            -6.2754040956497192e-01 2.8844285011291504e-01</leafValues></_></weakClassifiers></_>
    <!-- stage 5 -->
    <_>
      <maxWeakCount>9</maxWeakCount>
      <stageThreshold>-1.7167354822158813e+00</stageThreshold>
      <weakClassifiers>
        <_>
          <internalNodes>
            0 -1 112 9.5348041504621506e-03</internalNodes>
          <leafValues>
            -6.7493110895156860e-01 1.3084112107753754e-01</leafValues></_>
        <_>
          <internalNodes>
            0 -1 116 3.7586863618344069e-04</internalNodes>
          <leafValues>
            1.1338081955909729e-01 -8.1016349792480469e-01</leafValues></_>
        <_>
          <internalNodes>
            0 -1 67 -9.5839204732328653e-04</internalNodes>
          <leafValues>
            6.9334936141967773e-01 -2.3930738866329193e-01</leafValues></_>
        <_>
          <internalNodes>
            0 -1 35 9.0610738843679428e-03</internalNodes>
          <leafValues>
            1.9030776619911194e-01 -8.2412427663803101e-01</leafValues></_>
        <_>
          <internalNodes>
            0 -1 33 -1.6415037680417299e-03</internalNodes>
          <leafValues>
            -6.4943552017211914e-01 2.3450927436351776e-01</leafValues></_>
        <_>
          <internalNodes>
            0 -1 16 2.3825238458812237e-03</internalNodes>
          <leafValues>
            2.2291228175163269e-01 -5.9680658578872681e-01</leafValues></_>
        <_>
          <internalNodes>
            0 -1 110 -1.6898697940632701e-03</internalNodes>
          <leafValues>
            5.3609061241149902e-01 -2.9979270696640015e-01</leafValues></_>
        <_>
          <internalNodes>
            0 -1 111 -9.3911951407790184e-03</internalNodes>
          <leafValues>
            8.0382961034774780e-01 -2.2201618552207947e-01</leafValues></_>
        <_>
          <internalNodes>
            0 -1 77 -6.2623294070363045e-03</internalNodes>
          <leafValues>
            6.8218457698822021e-01 -2.2207936644554138e-01</leafValues></_></weakClassifiers></_>
    <!-- stage 6 -->
    <_>
      <maxWeakCount>9</maxWeakCount>
      <stageThreshold>-1.1698883771896362e+00</stageThreshold>
      <weakClassifiers>
        <_>
          <internalNodes>
            0 -1 88 1.6354409977793694e-02</internalNodes>
          <leafValues>
            -6.9187676906585693e-01 1.3636364042758942e-01</leafValues></_>
        <_>
          <internalNodes>
            0 -1 43 1.3919584453105927e-02</internalNodes>
          <leafValues>
            -3.1027209758758545e-01 6.3233089447021484e-01</leafValues></_>
        <_>
          <internalNodes>
            0 -1 23 8.9636489748954773e-02</internalNodes>
          <leafValues>
            -3.4461140632629395e-01 4.3296608328819275e-01</leafValues></_>
        <_>
          <internalNodes>
            0 -1 0 -2.2021299228072166e-03</internalNodes>
          <leafValues>
            -9.4317442178726196e-01 1.4908923208713531e-01</leafValues></_>
        <_>
          <internalNodes>
            0 -1 52 1.5170803293585777e-02</internalNodes>
          <leafValues>
            -2.2385297715663910e-01 6.4977675676345825e-01</leafValues></_>
        <_>
          <internalNodes>
            0 -1 21 3.1454304698854685e-03</internalNodes>
          <leafValues>
            -2.4117152392864227e-01 6.3057219982147217e-01</leafValues></_>
        <_>
          <internalNodes>
            0 -1 1 -3.0388323590159416e-02</internalNodes>
          <leafValues>
            5.8911943435668945e-01 -2.6435771584510803e-01</leafValues></_>
        <_>
          <internalNodes>
            0 -1 97 -2.9966286383569241e-03</internalNodes>
          <leafValues>
            6.7227900028228760e-01 -2.0465102791786194e-01</leafValues></_>
        <_>
          <internalNodes>
            0 -1 128 -6.0876156203448772e-03</internalNodes>
          <leafValues>
            -9.1643851995468140e-01 1.8423835933208466e-01</leafValues></_></weakClassifiers></_>
    <!-- stage 7 -->
    <_>
      <maxWeakCount>9</maxWeakCount>
      <stageThreshold>-1.5553264617919922e+00</stageThreshold>
      <weakClassifiers>
        <_>
          <internalNodes>
            0 -1 93 3.5246589686721563e-03</internalNodes>
          <leafValues>
            -5.7510727643966675e-01 4.5945945382118225e-01</leafValues></_>
        <_>
          <internalNodes>
            0 -1 103 -2.5846268981695175e-02</internalNodes>
          <leafValues>
            4.0021589398384094e-01 -4.7428452968597412e-01</leafValues></_>
        <_>
          <internalNodes>
            0 -1 104 -2.1333413315005600e-04</internalNodes>
          <leafValues>
            4.0626317262649536e-01 -3.3162710070610046e-01</leafValues></_>
        <_>
          <internalNodes>
            0 -1 58 1.2873599771410227e-03</internalNodes>
          <leafValues>
            -2.3064760863780975e-01 6.4159411191940308e-01</leafValues></_>
        <_>
          <internalNodes>
            0 -1 65 8.8036414235830307e-03</internalNodes>
          <leafValues>
            -1.9787344336509705e-01 6.5565335750579834e-01</leafValues></_>
        <_>
          <internalNodes>
            0 -1 17 -2.1134673152118921e-03</internalNodes>
          <leafValues>
            -8.4620809555053711e-01 1.8870300054550171e-01</leafValues></_>
        <_>
          <internalNodes>
            0 -1 43 1.5931490808725357e-02</internalNodes>
          <leafValues>
            -2.2767484188079834e-01 7.1729654073715210e-01</leafValues></_>
        <_>
          <internalNodes>
            0 -1 78 -1.4485895633697510e-02</internalNodes>
          <leafValues>
            5.5427384376525879e-01 -2.8679868578910828e-01</leafValues></_>
        <_>
          <internalNodes>
            0 -1 90 2.2162329405546188e-03</internalNodes>
          <leafValues>
            -2.6108846068382263e-01 5.2567249536514282e-01</leafValues></_></weakClassifiers></_>
    <!-- stage 8 -->
    <_>
      <maxWeakCount>9</maxWeakCount>
      <stageThreshold>-1.2250367403030396e+00</stageThreshold>
      <weakClassifiers>
        <_>
          <internalNodes>
            0 -1 39 -3.2376088201999664e-02</internalNodes>
          <leafValues>
            6.3380283117294312e-01 -5.1778656244277954e-01</leafValues></_>
        <_>
          <internalNodes>
            0 -1 41 2.1326651796698570e-02</internalNodes>
          <leafValues>
            1.4290945231914520e-01 -7.4983310699462891e-01</leafValues></_>
        <_>
          <internalNodes>
            0 -1 105 5.8640334755182266e-03</internalNodes>
          <leafValues>
            -3.1889528036117554e-01 3.9872208237648010e-01</leafValues></_>
        <_>
          <internalNodes>
            0 -1 44 -1.8386032024864107e-05</internalNodes>
          <leafValues>
            4.8801243305206299e-01 -2.7033472061157227e-01</leafValues></_>
        <_>
          <internalNodes>
            0 -1 108 -1.4760689809918404e-03</internalNodes>
          <leafValues>
            2.8031164407730103e-01 -4.4941774010658264e-01</leafValues></_>
        <_>
          <internalNodes>
            0 -1 86 -2.7684425731422380e-05</internalNodes>
          <leafValues>
            3.5589936375617981e-01 -3.6146306991577148e-01</leafValues></_>
        <_>
          <internalNodes>
            0 -1 106 1.2984434142708778e-03</internalNodes>
          <leafValues>
            1.2196677178144455e-01 -8.4578263759613037e-01</leafValues></_>
        <_>
          <internalNodes>
            0 -1 37 1.1159564601257443e-03</internalNodes>
          <leafValues>
            -2.3316895961761475e-01 5.5331724882125854e-01</leafValues></_>
        <_>
          <internalNodes>
            0 -1 11 -6.7145752836950123e-05</internalNodes>
          <leafValues>
            -7.0765745639801025e-01 1.9392292201519012e-01</leafValues></_></weakClassifiers></_>
    <!-- stage 9 -->
    <_>
      <maxWeakCount>10</maxWeakCount>
      <stageThreshold>-1.4247554540634155e+00</stageThreshold>
      <weakClassifiers>
        <_>
          <internalNodes>
            0 -1 48 -1.9775710999965668e-02</internalNodes>
          <leafValues>
            1.7575757205486298e-01 -5.9708738327026367e-01</leafValues></_>
        <_>
          <internalNodes>
            0 -1 60 1.2513225665315986e-03</internalNodes>
          <leafValues>
            -4.9992269277572632e-01 1.9829601049423218e-01</leafValues></_>
        <_>
          <internalNodes>
            0 -1 113 1.2705441622529179e-04</internalNodes>
          <leafValues>
            -2.2152003645896912e-01 5.3139704465866089e-01</leafValues></_>
        <_>
          <internalNodes>
            0 -1 32 -2.3817778564989567e-03</internalNodes>
          <leafValues>
            -8.1170308589935303e-01 1.5592071413993835e-01</leafValues></_>
        <_>
          <internalNodes>
            0 -1 47 3.6456852685660124e-03</internalNodes>
          <leafValues>
            -2.1194879710674286e-01 6.1389440298080444e-01</leafValues></_>
        <_>
          <internalNodes>
            0 -1 81 1.1080689728260040e-02</internalNodes>
          <leafValues>
            -2.3170864582061768e-01 6.1091178655624390e-01</leafValues></_>
        <_>
          <internalNodes>
            0 -1 8 -1.2414893135428429e-03</internalNodes>
          <leafValues>
            -8.3693110942840576e-01 1.3057692348957062e-01</leafValues></_>
        <_>
          <internalNodes>
            0 -1 4 -1.5817474923096597e-04</internalNodes>
          <leafValues>
            3.4816116094589233e-01 -3.4681907296180725e-01</leafValues></_>
        <_>
          <internalNodes>
            0 -1 100 1.3597395736724138e-03</internalNodes>
          <leafValues>
            -2.1381972730159760e-01 6.0953336954116821e-01</leafValues></_>
        <_>
          <internalNodes>
            0 -1 79 1.5697762370109558e-02</internalNodes>
          <leafValues>
            -1.4134386181831360e-01 8.1772959232330322e-01</leafValues></_></weakClassifiers></_>
    <!-- stage 10 -->
    <_>
      <maxWeakCount>9</maxWeakCount>
      <stageThreshold>-9.5758157968521118e-01</stageThreshold>
      <weakClassifiers>
        <_>
          <internalNodes>
            0 -1 24 -3.4826442599296570e-02</internalNodes>
          <leafValues>
            5.1162791252136230e-01 -5.3156822919845581e-01</leafValues></_>
        <_>
          <internalNodes>
            0 -1 70 -1.0291237849742174e-03</internalNodes>
          <leafValues>
            -5.5764001607894897e-01 1.8830019235610962e-01</leafValues></_>
        <_>
          <internalNodes>
            0 -1 61 -7.0259172935038805e-04</internalNodes>
          <leafValues>
            3.1389245390892029e-01 -4.6403139829635620e-01</leafValues></_>
        <_>
          <internalNodes>
            0 -1 57 1.1265586130321026e-02</internalNodes>
          <leafValues>
            -1.9564844667911530e-01 6.9496130943298340e-01</leafValues></_>
        <_>
          <internalNodes>
            0 -1 56 -2.1048861090093851e-03</internalNodes>
          <leafValues>
            5.2073639631271362e-01 -1.5714445710182190e-01</leafValues></_>
        <_>
          <internalNodes>
            0 -1 83 -1.3300332939252257e-03</internalNodes>
          <leafValues>
            -5.8664518594741821e-01 1.6764993965625763e-01</leafValues></_>
        <_>
          <internalNodes>
            0 -1 64 -1.3151776511222124e-03</internalNodes>
          <leafValues>
            4.7905454039573669e-01 -2.1181629598140717e-01</leafValues></_>
        <_>
          <internalNodes>
            0 -1 89 3.5642222501337528e-03</internalNodes>
          <leafValues>
            -1.6251330077648163e-01 6.1247783899307251e-01</leafValues></_>
        <_>
          <internalNodes>
            0 -1 75 4.7766249626874924e-03</internalNodes>
          <leafValues>
            -2.1362110972404480e-01 5.4634833335876465e-01</leafValues></_></weakClassifiers></_>
    <!-- stage 11 -->
    <_>
      <maxWeakCount>12</maxWeakCount>
      <stageThreshold>-1.1535822153091431e+00</stageThreshold>
      <weakClassifiers>
        <_>
          <internalNodes>
            0 -1 92 -4.4049911201000214e-02</internalNodes>
          <leafValues>
            6.0000002384185791e-01 -5.0000000000000000e-01</leafValues></_>
        <_>
          <internalNodes>
            0 -1 31 7.4571860022842884e-04</internalNodes>
          <leafValues>
            -3.0714613199234009e-01 3.8223820924758911e-01</leafValues></_>
        <_>
          <internalNodes>
            0 -1 127 -3.7501340557355434e-05</internalNodes>
          <leafValues>
            -6.2485718727111816e-01 1.4798945188522339e-01</leafValues></_>
        <_>
          <internalNodes>
            0 -1 72 -1.2391679920256138e-03</internalNodes>
          <leafValues>
            -8.8184130191802979e-01 1.2358612567186356e-01</leafValues></_>
        <_>
          <internalNodes>
            0 -1 74 -1.9656373187899590e-03</internalNodes>
          <leafValues>
            5.2315664291381836e-01 -1.8557326495647430e-01</leafValues></_>
        <_>
          <internalNodes>
            0 -1 117 2.6004387065768242e-02</internalNodes>
          <leafValues>
            -1.2040758132934570e-01 8.1245881319046021e-01</leafValues></_>
        <_>
          <internalNodes>
            0 -1 118 2.3169708438217640e-03</internalNodes>
          <leafValues>
            1.2905120849609375e-01 -8.8309478759765625e-01</leafValues></_>
        <_>
          <internalNodes>
            0 -1 76 3.8274135440587997e-03</internalNodes>
          <leafValues>
            -3.1614202260971069e-01 3.7038710713386536e-01</leafValues></_>
        <_>
          <internalNodes>
            0 -1 68 2.4193149060010910e-02</internalNodes>
          <leafValues>
            1.9960863888263702e-01 -5.9227806329727173e-01</leafValues></_>
        <_>
          <internalNodes>
            0 -1 26 -2.1520346403121948e-02</internalNodes>
          <leafValues>
            -4.7159624099731445e-01 2.3250073194503784e-01</leafValues></_>
        <_>
          <internalNodes>
            0 -1 96 -1.2169383466243744e-02</internalNodes>
          <leafValues>
            6.6267913579940796e-01 -1.6968572139739990e-01</leafValues></_>
        <_>
          <internalNodes>
            0 -1 20 -7.5823476072400808e-04</internalNodes>
          <leafValues>
            3.4132871031761169e-01 -3.0104619264602661e-01</leafValues></_></weakClassifiers></_>
    <!-- stage 12 -->
    <_>
      <maxWeakCount>10</maxWeakCount>
      <stageThreshold>-9.8762387037277222e-01</stageThreshold>
      <weakClassifiers>
        <_>
          <internalNodes>
            0 -1 115 6.2800953164696693e-03</internalNodes>
          <leafValues>
            -4.6616542339324951e-01 6.8888890743255615e-01</leafValues></_>
        <_>
          <internalNodes>
            0 -1 80 1.7354641109704971e-02</internalNodes>
          <leafValues>
            -2.2712518274784088e-01 6.4753854274749756e-01</leafValues></_>
        <_>
          <internalNodes>
            0 -1 13 1.0307414922863245e-03</internalNodes>
          <leafValues>
            1.8371251225471497e-01 -8.7020778656005859e-01</leafValues></_>
        <_>
          <internalNodes>
            0 -1 12 9.3562826514244080e-03</internalNodes>
          <leafValues>
            -3.1873559951782227e-01 4.1196477413177490e-01</leafValues></_>
        <_>
          <internalNodes>
            0 -1 120 5.1331361755728722e-03</internalNodes>
          <leafValues>
            6.9935463368892670e-02 -8.3004492521286011e-01</leafValues></_>
        <_>
          <internalNodes>
            0 -1 6 1.0353678953833878e-04</internalNodes>
          <leafValues>
            1.2504598498344421e-01 -7.9161465167999268e-01</leafValues></_>
        <_>
          <internalNodes>
            0 -1 30 2.1799391106469557e-05</internalNodes>
          <leafValues>
            -2.2624891996383667e-01 4.5036542415618896e-01</leafValues></_>
        <_>
          <internalNodes>
            0 -1 114 -9.7052351338788867e-04</internalNodes>
          <leafValues>
            5.2347445487976074e-01 -1.9962349534034729e-01</leafValues></_>
        <_>
          <internalNodes>
            0 -1 28 -4.5486053824424744e-01</internalNodes>
          <leafValues>
            7.0265382528305054e-01 -1.4595508575439453e-01</leafValues></_>
        <_>
          <internalNodes>
            0 -1 45 -2.5006014038808644e-04</internalNodes>
          <leafValues>
            4.5758214592933655e-01 -2.5007882714271545e-01</leafValues></_></weakClassifiers></_>
    <!-- stage 13 -->
    <_>
      <maxWeakCount>10</maxWeakCount>
      <stageThreshold>-1.0425058603286743e+00</stageThreshold>
      <weakClassifiers>
        <_>
          <internalNodes>
            0 -1 82 -1.8982255831360817e-02</internalNodes>
          <leafValues>
            5.6923079490661621e-01 -4.9609375000000000e-01</leafValues></_>
        <_>
          <internalNodes>
            0 -1 91 -1.8616180866956711e-02</internalNodes>
          <leafValues>
            4.0074571967124939e-01 -2.9975786805152893e-01</leafValues></_>
        <_>
          <internalNodes>
            0 -1 46 -8.7549723684787750e-03</internalNodes>
          <leafValues>
            4.9855339527130127e-01 -2.2379690408706665e-01</leafValues></_>
        <_>
          <internalNodes>
            0 -1 10 -3.8999270647764206e-02</internalNodes>
          <leafValues>
            7.3202997446060181e-01 -1.2570179998874664e-01</leafValues></_>
        <_>
          <internalNodes>
            0 -1 102 -2.1573607809841633e-03</internalNodes>
          <leafValues>
            6.5110683441162109e-01 -1.4107248187065125e-01</leafValues></_>
        <_>
          <internalNodes>
            0 -1 73 5.9571187011897564e-04</internalNodes>
          <leafValues>
            1.4536702632904053e-01 -7.5802767276763916e-01</leafValues></_>
        <_>
          <internalNodes>
            0 -1 22 1.0306985117495060e-02</internalNodes>
          <leafValues>
            1.1125893145799637e-01 -1.</leafValues></_>
        <_>
          <internalNodes>
            0 -1 63 -2.0282113837311044e-05</internalNodes>
          <leafValues>
            2.8712108731269836e-01 -3.3424133062362671e-01</leafValues></_>
        <_>
          <internalNodes>
            0 -1 62 -6.9692414253950119e-03</internalNodes>
          <leafValues>
            3.9982250332832336e-01 -2.5692650675773621e-01</leafValues></_>
        <_>
          <internalNodes>
            0 -1 19 2.2096931934356689e-03</internalNodes>
          <leafValues>
            1.2460094690322876e-01 -7.6194053888320923e-01</leafValues></_></weakClassifiers></_>
    <!-- stage 14 -->
    <_>
      <maxWeakCount>10</maxWeakCount>
      <stageThreshold>-9.6267813444137573e-01</stageThreshold>
      <weakClassifiers>
        <_>
          <internalNodes>
            0 -1 42 -3.4932605922222137e-03</internalNodes>
          <leafValues>
            3.2608696818351746e-01 -5.0927835702896118e-01</leafValues></_>
        <_>
          <internalNodes>
            0 -1 54 -9.9868304096162319e-04</internalNodes>
          <leafValues>
            -4.8552384972572327e-01 2.1380126476287842e-01</leafValues></_>
        <_>
          <internalNodes>
            0 -1 2 -8.7392907589673996e-03</internalNodes>
          <leafValues>
            2.6302278041839600e-01 -3.7621822953224182e-01</leafValues></_>
        <_>
          <internalNodes>
            0 -1 38 -5.4394365288317204e-03</internalNodes>
          <leafValues>
            -9.5842087268829346e-01 1.1842209845781326e-01</leafValues></_>
        <_>
          <internalNodes>
            0 -1 9 7.5485287234187126e-03</internalNodes>
          <leafValues>
            -3.3849775791168213e-01 2.9419133067131042e-01</leafValues></_>
        <_>
          <internalNodes>
            0 -1 101 2.0265182480216026e-02</internalNodes>
          <leafValues>
            9.9775031208992004e-02 -8.4659439325332642e-01</leafValues></_>
        <_>
          <internalNodes>
            0 -1 51 -1.2540010502561927e-03</internalNodes>
          <leafValues>
            4.3851679563522339e-01 -2.6282027363777161e-01</leafValues></_>
        <_>
          <internalNodes>
            0 -1 122 -1.7312547424808145e-04</internalNodes>
          <leafValues>
            -4.4568759202957153e-01 2.4064254760742188e-01</leafValues></_>
        <_>
          <internalNodes>
            0 -1 98 3.2322711776942015e-03</internalNodes>
          <leafValues>
            -1.9287437200546265e-01 5.5040127038955688e-01</leafValues></_>
        <_>
          <internalNodes>
            0 -1 71 -5.7494677603244781e-03</internalNodes>
          <leafValues>
            -9.4937098026275635e-01 1.0445400327444077e-01</leafValues></_></weakClassifiers></_></stages>
  <features>
    <_>
      <rects>
        <_>
          0 0 3 6 -1.</_>
        <_>
          0 2 3 2 3.</_></rects>
      <tilted>0</tilted></_>
    <_>
      <rects>
        <_>
          0 0 16 10 -1.</_>
        <_>
          0 0 8 5 2.</_>
        <_>
          8 5 8 5 2.</_></rects>
      <tilted>0</tilted></_>
    <_>
      <rects>
        <_>
          0 0 34 7 -1.</_>
        <_>
          17 0 17 7 2.</_></rects>
      <tilted>0</tilted></_>
    <_>
      <rects>
        <_>
          0 1 14 21 -1.</_>
        <_>
          7 1 7 21 2.</_></rects>
      <tilted>0</tilted></_>
    <_>
      <rects>
        <_>
          0 2 6 14 -1.</_>
        <_>
          0 9 6 7 2.</_></rects>
      <tilted>0</tilted></_>
    <_>
      <rects>
        <_>
          0 4 2 1 -1.</_>
        <_>
          1 4 1 1 2.</_></rects>
      <tilted>0</tilted></_>
    <_>
      <rects>
        <_>
          0 4 3 1 -1.</_>
        <_>
          1 4 1 1 3.</_></rects>
      <tilted>0</tilted></_>
    <_>
      <rects>
        <_>
          0 4 1 3 -1.</_>
        <_>
          0 5 1 1 3.</_></rects>
      <tilted>0</tilted></_>
    <_>
      <rects>
        <_>
          0 9 1 12 -1.</_>
        <_>
          0 13 1 4 3.</_></rects>
      <tilted>0</tilted></_>
    <_>
      <rects>
        <_>
          0 10 10 12 -1.</_>
        <_>
          0 16 10 6 2.</_></rects>
      <tilted>0</tilted></_>
    <_>
      <rects>
        <_>
          0 11 12 12 -1.</_>
        <_>
          0 11 6 6 2.</_>
        <_>
          6 17 6 6 2.</_></rects>
      <tilted>0</tilted></_>
    <_>
      <rects>
        <_>
          0 12 2 8 -1.</_>
        <_>
          0 12 1 4 2.</_>
        <_>
          1 16 1 4 2.</_></rects>
      <tilted>0</tilted></_>
    <_>
      <rects>
        <_>
          0 12 9 10 -1.</_>
        <_>
          0 17 9 5 2.</_></rects>
      <tilted>0</tilted></_>
    <_>
      <rects>
        <_>
          0 16 1 6 -1.</_>
        <_>
          0 19 1 3 2.</_></rects>
      <tilted>0</tilted></_>
    <_>
      <rects>
        <_>
          0 17 1 3 -1.</_>
        <_>
          0 18 1 1 3.</_></rects>
      <tilted>0</tilted></_>
    <_>
      <rects>
        <_>
          0 18 1 2 -1.</_>
        <_>
          0 19 1 1 2.</_></rects>
      <tilted>0</tilted></_>
    <_>
      <rects>
        <_>
          0 20 36 1 -1.</_>
        <_>
          18 20 18 1 2.</_></rects>
      <tilted>0</tilted></_>
    <_>
      <rects>
        <_>
          1 0 21 1 -1.</_>
        <_>
          8 0 7 1 3.</_></rects>
      <tilted>0</tilted></_>
    <_>
      <rects>
        <_>
          1 0 35 10 -1.</_>
        <_>
          1 5 35 5 2.</_></rects>
      <tilted>0</tilted></_>
    <_>
      <rects>
        <_>
          1 3 9 3 -1.</_>
        <_>
          1 4 9 1 3.</_></rects>
      <tilted>0</tilted></_>
    <_>
      <rects>
        <_>
          1 6 12 2 -1.</_>
        <_>
          1 7 12 1 2.</_></rects>
      <tilted>0</tilted></_>
    <_>
      <rects>
        <_>
          1 10 10 2 -1.</_>
        <_>
          6 10 5 2 2.</_></rects>
      <tilted>0</tilted></_>
    <_>
      <rects>
        <_>
          1 10 5 6 -1.</_>
        <_>
          1 13 5 3 2.</_></rects>
      <tilted>0</tilted></_>
    <_>
      <rects>
        <_>
          1 10 34 14 -1.</_>
        <_>
          1 17 34 7 2.</_></rects>
      <tilted>0</tilted></_>
    <_>
      <rects>
        <_>
          1 15 18 8 -1.</_>
        <_>
          1 15 9 4 2.</_>
        <_>
          10 19 9 4 2.</_></rects>
      <tilted>0</tilted></_>
    <_>
      <rects>
        <_>
          1 22 34 2 -1.</_>
        <_>
          18 22 17 2 2.</_></rects>
      <tilted>0</tilted></_>
    <_>
      <rects>
        <_>
          2 0 32 14 -1.</_>
        <_>
          18 0 16 14 2.</_></rects>
      <tilted>0</tilted></_>
    <_>
      <rects>
        <_>
          2 1 4 4 -1.</_>
        <_>
          4 1 2 4 2.</_></rects>
      <tilted>0</tilted></_>
    <_>
      <rects>
        <_>
          2 4 33 16 -1.</_>
        <_>
          13 4 11 16 3.</_></rects>
      <tilted>0</tilted></_>
    <_>
      <rects>
        <_>
          2 6 9 12 -1.</_>
        <_>
          5 6 3 12 3.</_></rects>
      <tilted>0</tilted></_>
    <_>
      <rects>
        <_>
          2 8 2 9 -1.</_>
        <_>
          3 8 1 9 2.</_></rects>
      <tilted>0</tilted></_>
    <_>
      <rects>
        <_>
          2 18 10 2 -1.</_>
        <_>
          2 19 10 1 2.</_></rects>
      <tilted>0</tilted></_>
    <_>
      <rects>
        <_>
          2 19 32 2 -1.</_>
        <_>
          2 19 16 1 2.</_>
        <_>
          18 20 16 1 2.</_></rects>
      <tilted>0</tilted></_>
    <_>
      <rects>
        <_>
          2 21 32 1 -1.</_>
        <_>
          18 21 16 1 2.</_></rects>
      <tilted>0</tilted></_>
    <_>
      <rects>
        <_>
          2 21 34 2 -1.</_>
        <_>
          19 21 17 2 2.</_></rects>
      <tilted>0</tilted></_>
    <_>
      <rects>
        <_>
          2 23 34 1 -1.</_>
        <_>
          19 23 17 1 2.</_></rects>
      <tilted>0</tilted></_>
    <_>
      <rects>
        <_>
          3 1 4 1 -1.</_>
        <_>
          5 1 2 1 2.</_></rects>
      <tilted>0</tilted></_>
    <_>
      <rects>
        <_>
          3 6 13 2 -1.</_>
        <_>
          3 7 13 1 2.</_></rects>
      <tilted>0</tilted></_>
    <_>
      <rects>
        <_>
          3 7 1 10 -1.</_>
        <_>
          3 12 1 5 2.</_></rects>
      <tilted>0</tilted></_>
    <_>
      <rects>
        <_>
          3 17 20 6 -1.</_>
        <_>
          3 17 10 3 2.</_>
        <_>
          13 20 10 3 2.</_></rects>
      <tilted>0</tilted></_>
    <_>
      <rects>
        <_>
          3 22 3 2 -1.</_>
        <_>
          4 22 1 2 3.</_></rects>
      <tilted>0</tilted></_>
    <_>
      <rects>
        <_>
          4 0 15 7 -1.</_>
        <_>
          9 0 5 7 3.</_></rects>
      <tilted>0</tilted></_>
    <_>
      <rects>
        <_>
          4 0 12 2 -1.</_>
        <_>
          4 0 6 1 2.</_>
        <_>
          10 1 6 1 2.</_></rects>
      <tilted>0</tilted></_>
    <_>
      <rects>
        <_>
          4 0 12 8 -1.</_>
        <_>
          4 0 6 4 2.</_>
        <_>
          10 4 6 4 2.</_></rects>
      <tilted>0</tilted></_>
    <_>
      <rects>
        <_>
          4 1 2 4 -1.</_>
        <_>
          4 1 1 2 2.</_>
        <_>
          5 3 1 2 2.</_></rects>
      <tilted>0</tilted></_>
    <_>
      <rects>
        <_>
          4 4 5 3 -1.</_>
        <_>
          4 5 5 1 3.</_></rects>
      <tilted>0</tilted></_>
    <_>
      <rects>
        <_>
          4 10 8 3 -1.</_>
        <_>
          8 10 4 3 2.</_></rects>
      <tilted>0</tilted></_>
    <_>
      <rects>
        <_>
          4 19 19 2 -1.</_>
        <_>
          4 20 19 1 2.</_></rects>
      <tilted>0</tilted></_>
    <_>
      <rects>
        <_>
          5 0 29 4 -1.</_>
        <_>
          5 2 29 2 2.</_></rects>
      <tilted>0</tilted></_>
    <_>
      <rects>
        <_>
          5 0 29 8 -1.</_>
        <_>
          5 4 29 4 2.</_></rects>
      <tilted>0</tilted></_>
    <_>
      <rects>
        <_>
          5 2 10 6 -1.</_>
        <_>
          5 2 5 3 2.</_>
        <_>
          10 5 5 3 2.</_></rects>
      <tilted>0</tilted></_>
    <_>
      <rects>
        <_>
          5 2 11 3 -1.</_>
        <_>
          5 3 11 1 3.</_></rects>
      <tilted>0</tilted></_>
    <_>
      <rects>
        <_>
          5 4 18 6 -1.</_>
        <_>
          5 4 9 3 2.</_>
        <_>
          14 7 9 3 2.</_></rects>
      <tilted>0</tilted></_>
    <_>
      <rects>
        <_>
          5 18 28 4 -1.</_>
        <_>
          5 20 28 2 2.</_></rects>
      <tilted>0</tilted></_>
    <_>
      <rects>
        <_>
          6 0 24 3 -1.</_>
        <_>
          18 0 12 3 2.</_></rects>
      <tilted>0</tilted></_>
    <_>
      <rects>
        <_>
          6 0 21 6 -1.</_>
        <_>
          6 2 21 2 3.</_></rects>
      <tilted>0</tilted></_>
    <_>
      <rects>
        <_>
          6 3 12 2 -1.</_>
        <_>
          6 3 6 1 2.</_>
        <_>
          12 4 6 1 2.</_></rects>
      <tilted>0</tilted></_>
    <_>
      <rects>
        <_>
          6 14 6 6 -1.</_>
        <_>
          6 14 3 3 2.</_>
        <_>
          9 17 3 3 2.</_></rects>
      <tilted>0</tilted></_>
    <_>
      <rects>
        <_>
          6 15 8 2 -1.</_>
        <_>
          6 15 4 1 2.</_>
        <_>
          10 16 4 1 2.</_></rects>
      <tilted>0</tilted></_>
    <_>
      <rects>
        <_>
          6 15 12 4 -1.</_>
        <_>
          6 15 6 2 2.</_>
        <_>
          12 17 6 2 2.</_></rects>
      <tilted>0</tilted></_>
    <_>
      <rects>
        <_>
          6 19 30 4 -1.</_>
        <_>
          21 19 15 4 2.</_></rects>
      <tilted>0</tilted></_>
    <_>
      <rects>
        <_>
          7 0 18 5 -1.</_>
        <_>
          16 0 9 5 2.</_></rects>
      <tilted>0</tilted></_>
    <_>
      <rects>
        <_>
          7 7 16 6 -1.</_>
        <_>
          7 7 8 3 2.</_>
        <_>
          15 10 8 3 2.</_></rects>
      <tilted>0</tilted></_>
    <_>
      <rects>
        <_>
          8 1 3 8 -1.</_>
        <_>
          9 1 1 8 3.</_></rects>
      <tilted>0</tilted></_>
    <_>
      <rects>
        <_>
          8 6 10 2 -1.</_>
        <_>
          8 6 5 1 2.</_>
        <_>
          13 7 5 1 2.</_></rects>
      <tilted>0</tilted></_>
    <_>
      <rects>
        <_>
          9 2 5 6 -1.</_>
        <_>
          9 4 5 2 3.</_></rects>
      <tilted>0</tilted></_>
    <_>
      <rects>
        <_>
          9 3 20 3 -1.</_>
        <_>
          9 4 20 1 3.</_></rects>
      <tilted>0</tilted></_>
    <_>
      <rects>
        <_>
          9 7 6 2 -1.</_>
        <_>
          9 7 3 1 2.</_>
        <_>
          12 8 3 1 2.</_></rects>
      <tilted>0</tilted></_>
    <_>
      <rects>
        <_>
          10 0 16 13 -1.</_>
        <_>
          18 0 8 13 2.</_></rects>
      <tilted>0</tilted></_>
    <_>
      <rects>
        <_>
          10 14 10 4 -1.</_>
        <_>
          10 14 5 2 2.</_>
        <_>
          15 16 5 2 2.</_></rects>
      <tilted>0</tilted></_>
    <_>
      <rects>
        <_>
          11 0 14 3 -1.</_>
        <_>
          18 0 7 3 2.</_></rects>
      <tilted>0</tilted></_>
    <_>
      <rects>
        <_>
          11 18 4 4 -1.</_>
        <_>
          13 18 2 4 2.</_></rects>
      <tilted>0</tilted></_>
    <_>
      <rects>
        <_>
          11 19 3 4 -1.</_>
        <_>
          12 19 1 4 3.</_></rects>
      <tilted>0</tilted></_>
    <_>
      <rects>
        <_>
          12 0 6 1 -1.</_>
        <_>
          14 0 2 1 3.</_></rects>
      <tilted>0</tilted></_>
    <_>
      <rects>
        <_>
          12 9 8 2 -1.</_>
        <_>
          12 9 4 1 2.</_>
        <_>
          16 10 4 1 2.</_></rects>
      <tilted>0</tilted></_>
    <_>
      <rects>
        <_>
          12 21 19 2 -1.</_>
        <_>
          12 22 19 1 2.</_></rects>
      <tilted>0</tilted></_>
    <_>
      <rects>
        <_>
          13 2 20 4 -1.</_>
        <_>
          13 2 10 2 2.</_>
        <_>
          23 4 10 2 2.</_></rects>
      <tilted>0</tilted></_>
    <_>
      <rects>
        <_>
          13 5 6 8 -1.</_>
        <_>
          13 5 3 4 2.</_>
        <_>
          16 9 3 4 2.</_></rects>
      <tilted>0</tilted></_>
    <_>
      <rects>
        <_>
          13 13 8 9 -1.</_>
        <_>
          13 16 8 3 3.</_></rects>
      <tilted>0</tilted></_>
    <_>
      <rects>
        <_>
          13 18 5 6 -1.</_>
        <_>
          13 20 5 2 3.</_></rects>
      <tilted>0</tilted></_>
    <_>
      <rects>
        <_>
          14 5 7 6 -1.</_>
        <_>
          14 7 7 2 3.</_></rects>
      <tilted>0</tilted></_>
    <_>
      <rects>
        <_>
          14 16 6 6 -1.</_>
        <_>
          14 18 6 2 3.</_></rects>
      <tilted>0</tilted></_>
    <_>
      <rects>
        <_>
          15 1 16 4 -1.</_>
        <_>
          15 1 8 2 2.</_>
        <_>
          23 3 8 2 2.</_></rects>
      <tilted>0</tilted></_>
    <_>
      <rects>
        <_>
          15 3 6 2 -1.</_>
        <_>
          17 3 2 2 3.</_></rects>
      <tilted>0</tilted></_>
    <_>
      <rects>
        <_>
          15 15 20 8 -1.</_>
        <_>
          15 15 10 4 2.</_>
        <_>
          25 19 10 4 2.</_></rects>
      <tilted>0</tilted></_>
    <_>
      <rects>
        <_>
          16 0 6 24 -1.</_>
        <_>
          16 12 6 12 2.</_></rects>
      <tilted>0</tilted></_>
    <_>
      <rects>
        <_>
          16 1 2 6 -1.</_>
        <_>
          17 1 1 6 2.</_></rects>
      <tilted>0</tilted></_>
    <_>
      <rects>
        <_>
          16 10 4 6 -1.</_>
        <_>
          16 12 4 2 3.</_></rects>
      <tilted>0</tilted></_>
    <_>
      <rects>
        <_>
          16 18 18 6 -1.</_>
        <_>
          25 18 9 6 2.</_></rects>
      <tilted>0</tilted></_>
    <_>
      <rects>
        <_>
          16 20 6 3 -1.</_>
        <_>
          16 21 6 1 3.</_></rects>
      <tilted>0</tilted></_>
    <_>
      <rects>
        <_>
          17 0 2 6 -1.</_>
        <_>
          17 2 2 2 3.</_></rects>
      <tilted>0</tilted></_>
    <_>
      <rects>
        <_>
          17 0 9 9 -1.</_>
        <_>
          17 3 9 3 3.</_></rects>
      <tilted>0</tilted></_>
    <_>
      <rects>
        <_>
          17 1 18 8 -1.</_>
        <_>
          17 1 9 4 2.</_>
        <_>
          26 5 9 4 2.</_></rects>
      <tilted>0</tilted></_>
    <_>
      <rects>
        <_>
          17 21 13 2 -1.</_>
        <_>
          17 22 13 1 2.</_></rects>
      <tilted>0</tilted></_>
    <_>
      <rects>
        <_>
          18 1 18 22 -1.</_>
        <_>
          27 1 9 22 2.</_></rects>
      <tilted>0</tilted></_>
    <_>
      <rects>
        <_>
          18 18 16 4 -1.</_>
        <_>
          18 18 8 2 2.</_>
        <_>
          26 20 8 2 2.</_></rects>
      <tilted>0</tilted></_>
    <_>
      <rects>
        <_>
          19 5 16 8 -1.</_>
        <_>
          27 5 8 8 2.</_></rects>
      <tilted>0</tilted></_>
    <_>
      <rects>
        <_>
          19 21 9 3 -1.</_>
        <_>
          19 22 9 1 3.</_></rects>
      <tilted>0</tilted></_>
    <_>
      <rects>
        <_>
          20 0 4 6 -1.</_>
        <_>
          20 3 4 3 2.</_></rects>
      <tilted>0</tilted></_>
    <_>
      <rects>
        <_>
          20 0 16 2 -1.</_>
        <_>
          20 0 8 1 2.</_>
        <_>
          28 1 8 1 2.</_></rects>
      <tilted>0</tilted></_>
    <_>
      <rects>
        <_>
          20 9 2 3 -1.</_>
        <_>
          20 10 2 1 3.</_></rects>
      <tilted>0</tilted></_>
    <_>
      <rects>
        <_>
          21 0 15 4 -1.</_>
        <_>
          26 0 5 4 3.</_></rects>
      <tilted>0</tilted></_>
    <_>
      <rects>
        <_>
          21 7 2 3 -1.</_>
        <_>
          21 8 2 1 3.</_></rects>
      <tilted>0</tilted></_>
    <_>
      <rects>
        <_>
          22 0 13 12 -1.</_>
        <_>
          22 6 13 6 2.</_></rects>
      <tilted>0</tilted></_>
    <_>
      <rects>
        <_>
          22 4 11 3 -1.</_>
        <_>
          22 5 11 1 3.</_></rects>
      <tilted>0</tilted></_>
    <_>
      <rects>
        <_>
          23 16 12 4 -1.</_>
        <_>
          23 18 12 2 2.</_></rects>
      <tilted>0</tilted></_>
    <_>
      <rects>
        <_>
          24 0 12 1 -1.</_>
        <_>
          28 0 4 1 3.</_></rects>
      <tilted>0</tilted></_>
    <_>
      <rects>
        <_>
          24 0 6 2 -1.</_>
        <_>
          24 1 6 1 2.</_></rects>
      <tilted>0</tilted></_>
    <_>
      <rects>
        <_>
          24 1 12 15 -1.</_>
        <_>
          24 6 12 5 3.</_></rects>
      <tilted>0</tilted></_>
    <_>
      <rects>
        <_>
          24 15 9 3 -1.</_>
        <_>
          27 15 3 3 3.</_></rects>
      <tilted>0</tilted></_>
    <_>
      <rects>
        <_>
          24 16 8 4 -1.</_>
        <_>
          24 16 4 2 2.</_>
        <_>
          28 18 4 2 2.</_></rects>
      <tilted>0</tilted></_>
    <_>
      <rects>
        <_>
          25 1 6 8 -1.</_>
        <_>
          25 1 3 4 2.</_>
        <_>
          28 5 3 4 2.</_></rects>
      <tilted>0</tilted></_>
    <_>
      <rects>
        <_>
          25 2 10 6 -1.</_>
        <_>
          30 2 5 6 2.</_></rects>
      <tilted>0</tilted></_>
    <_>
      <rects>
        <_>
          25 4 3 2 -1.</_>
        <_>
          25 5 3 1 2.</_></rects>
      <tilted>0</tilted></_>
    <_>
      <rects>
        <_>
          25 12 4 4 -1.</_>
        <_>
          25 12 2 2 2.</_>
        <_>
          27 14 2 2 2.</_></rects>
      <tilted>0</tilted></_>
    <_>
      <rects>
        <_>
          25 21 5 2 -1.</_>
        <_>
          25 22 5 1 2.</_></rects>
      <tilted>0</tilted></_>
    <_>
      <rects>
        <_>
          27 0 9 1 -1.</_>
        <_>
          30 0 3 1 3.</_></rects>
      <tilted>0</tilted></_>
    <_>
      <rects>
        <_>
          27 8 8 16 -1.</_>
        <_>
          27 8 4 8 2.</_>
        <_>
          31 16 4 8 2.</_></rects>
      <tilted>0</tilted></_>
    <_>
      <rects>
        <_>
          30 21 6 3 -1.</_>
        <_>
          32 21 2 3 3.</_></rects>
      <tilted>0</tilted></_>
    <_>
      <rects>
        <_>
          30 23 6 1 -1.</_>
        <_>
          33 23 3 1 2.</_></rects>
      <tilted>0</tilted></_>
    <_>
      <rects>
        <_>
          31 2 4 20 -1.</_>
        <_>
          31 2 2 10 2.</_>
        <_>
          33 12 2 10 2.</_></rects>
      <tilted>0</tilted></_>
    <_>
      <rects>
        <_>
          32 0 3 4 -1.</_>
        <_>
          32 2 3 2 2.</_></rects>
      <tilted>0</tilted></_>
    <_>
      <rects>
        <_>
          32 4 4 16 -1.</_>
        <_>
          32 4 2 8 2.</_>
        <_>
          34 12 2 8 2.</_></rects>
      <tilted>0</tilted></_>
    <_>
      <rects>
        <_>
          33 19 3 1 -1.</_>
        <_>
          34 19 1 1 3.</_></rects>
      <tilted>0</tilted></_>
    <_>
      <rects>
        <_>
          34 0 2 24 -1.</_>
        <_>
          34 0 1 12 2.</_>
        <_>
          35 12 1 12 2.</_></rects>
      <tilted>0</tilted></_>
    <_>
      <rects>
        <_>
          34 4 1 2 -1.</_>
        <_>
          34 5 1 1 2.</_></rects>
      <tilted>0</tilted></_>
    <_>
      <rects>
        <_>
          34 18 1 3 -1.</_>
        <_>
          34 19 1 1 3.</_></rects>
      <tilted>0</tilted></_>
    <_>
      <rects>
        <_>
          35 0 1 6 -1.</_>
        <_>
          35 3 1 3 2.</_></rects>
      <tilted>0</tilted></_>
    <_>
      <rects>
        <_>
          35 1 1 15 -1.</_>
        <_>
          35 6 1 5 3.</_></rects>
      <tilted>0</tilted></_>
    <_>
      <rects>
        <_>
          35 19 1 2 -1.</_>
        <_>
          35 20 1 1 2.</_></rects>
      <tilted>0</tilted></_></features></cascade>
</opencv_storage>
